{
    "inputs": 784,
    "layers": [
        {
            "count": 32,
            "nodes": [
                {
                    "bias": -1.0,
                    "weights": [
                        0.0026626707128260367,
                        0.0008790909093812486,
                        -0.00025240554791589466,
                        0.0006590041127567116,
                        -2.415670493663913e-05,
                        0.0014370309934955228,
                        -0.0003480902480468305,
                        0.0014466125676958035,
                        0.0020126821617061164,
                        0.00234391710158548,
                        0.0011153558573970344,
                        -0.00015046981540220076,
                        0.0003418295753476292,
                        -0.001241067796174868,
                        -3.7785058360382104e-05,
                        0.0009053311402002221,
                        0.0010537244159217424,
                        -0.0020094826864079343,
                        -0.0005751742021263738,
                        -0.0008340369427264141,
                        0.0007846572142625296,
                        0.0008581612191118571,
                        -0.0020356872780120778,
                        0.0001074176875348213,
                        0.00013258858991208194,
                        -0.0005347752788416315,
                        0.00028411661612361117,
                        0.0002153585008992419,
                        0.0009694883572518833,
                        -6.951895705840623e-05,
                        -4.672408010066277e-06,
                        4.4489256783010545e-05,
                        -0.0013815071929975647,
                        -0.0002989820382160628,
                        -0.0012839096555956127,
                        0.0005416789231484458,
                        -0.0011328671657099766,
                        -0.00118029569823527,
                        0.0005257747927368301,
                        0.000503457116624201,
                        -0.0007706943068277068,
                        0.0016986462166493584,
                        -0.0003000158307385354,
                        -0.00036574204529022357,
                        -0.0010055368322533945,
                        0.0011652386367518653,
                        0.00042494814052774615,
                        -0.000989241972767876,
                        -0.000629417480444998,
                        -0.0005960442900013541,
                        0.00028224741696010887,
                        0.0008323165162399358,
                        -0.00041656630525565755,
                        0.001909931179930006,
                        0.00040796204390112085,
                        -0.00086230870230138,
                        0.0008271066581839308,
                        0.0003410054670608358,
                        0.0012377365323128992,
                        -0.0017843481641346744,
                        0.0012507338437980626,
                        0.0002568879633086527,
                        -0.0002944590816176601,
                        0.0006298073105132174,
                        -0.000819184504166843,
                        -4.6999982512037733e-05,
                        0.000637451305388907,
                        0.0017493098538017117,
                        -0.0005453396175051329,
                        0.0011974517632691434,
                        -0.0009674552469234583,
                        0.0010653628416638359,
                        0.00021989779667581363,
                        -0.0001862976373828053,
                        0.0007463725639967885,
                        -0.0004479968652895819,
                        0.0005590158119850703,
                        -0.0015326737619012429,
                        0.001672809865126915,
                        -0.0025675756733286683,
                        -0.0004000423465742635,
                        -0.001029154890980415,
                        0.0002700522474805892,
                        -0.001001408625591057,
                        -8.401575190637801e-05,
                        -1.262221215248292e-05,
                        0.0019466025846826467,
                        -0.0019948365000454515,
                        0.0011764415492086851,
                        -0.0011590760310515823,
                        -0.0014765743199768187,
                        -0.0006417846827527406,
                        0.0010119315673145705,
                        0.0003530827419865095,
                        0.0010917023478038924,
                        0.00022085669422734444,
                        0.001129316041337423,
                        0.001486384579228766,
                        -0.00044923280657244147,
                        0.0008370056275015901,
                        -0.00019039988558743856,
                        0.000741706767399837,
                        0.00047455719389991345,
                        0.000597107524462352,
                        -0.001784720729166619,
                        -0.0003377200505578838,
                        0.00044164365031347573,
                        -0.0007065634650792852,
                        -0.0012000675415199352,
                        0.0022341452689719414,
                        -0.0007835970979691379,
                        0.0011085530191755656,
                        -0.0008943208307431206,
                        -0.00014996513285387976,
                        0.00041374032620155205,
                        -0.001210586714860487,
                        0.0007693333054173957,
                        -0.0006626550269721008,
                        0.000367425021871611,
                        -0.000683392086837238,
                        -0.00012392707017112384,
                        0.00018391654413269428,
                        -7.296126461054388e-05,
                        0.00028398131323214697,
                        -0.0012677311564458214,
                        0.0005391096588020334,
                        0.0005547682300304897,
                        3.622732843733264e-05,
                        -0.0010716928520544372,
                        -0.0012759423455584744,
                        0.001828751097060215,
                        -0.0002639716569656219,
                        0.0008775103966080938,
                        0.0011539878691692257,
                        -0.001070960654020287,
                        0.00042098939252659633,
                        0.0014988182892189648,
                        -0.0020777210128301456,
                        0.0010763180712499514,
                        0.00028872647804409915,
                        -0.0006261298516682346,
                        0.0002183669038731388,
                        -0.0007258647150760852,
                        -0.0009647161482192242,
                        0.0006794767537868149,
                        -0.0022992301528634304,
                        0.00013333832237386379,
                        0.0013168223081507675,
                        -0.00031077505032709373,
                        0.002260585564572832,
                        -0.0002496314145863386,
                        0.00114276559487965,
                        -0.0012008452364593175,
                        0.0012088169235699485,
                        -2.293804132855161e-05,
                        0.000841765721919801,
                        1.3797661199026818e-05,
                        -0.0018814314693229896,
                        0.000609891457706422,
                        0.00025483863917217056,
                        -0.0016540677369960813,
                        -0.0002952247585055215,
                        -9.040007744820981e-05,
                        0.00037799295432490253,
                        -0.0003573915878761602,
                        -0.0017028412143529662,
                        0.0009262359218706887,
                        -0.0004811918328776538,
                        -0.0022859273063767773,
                        -0.00013716031928453408,
                        0.0009504464736987934,
                        0.0003228372018864936,
                        -0.0007845003377762701,
                        -0.0006666226077098373,
                        -0.0007668084769179467,
                        -0.0020594502872495327,
                        -0.0002752787818754344,
                        0.0006731741093245825,
                        0.001611286337452685,
                        -0.00011886371598802624,
                        0.0014408310690629859,
                        0.0006276301873298095,
                        0.00038848424702426994,
                        0.0006255708404082562,
                        -0.00024336745042825985,
                        0.0001711687846191468,
                        8.755732681700178e-05,
                        -0.0005336691033750122,
                        -0.000601029052269002,
                        -0.0012743152677279007,
                        0.0008634298020068404,
                        -0.00018285115600259866,
                        4.3169909562181764e-05,
                        0.0010643114990383958,
                        -0.0002722495610019186,
                        -0.0015368138259231568,
                        0.001202049732877839,
                        -0.00037148900672984495,
                        0.00014935311101503106,
                        -0.000673582145346348,
                        -0.0012313707853812553,
                        0.0012823961493948443,
                        0.00043904234682476043,
                        -0.00012106739533290443,
                        0.000383874212246173,
                        0.0005817676790096294,
                        0.0005614514761331696,
                        -0.0014574120767309592,
                        0.0004833015124988594,
                        -0.00029114944386688144,
                        -0.00040282627241967857,
                        0.00013406983991103306,
                        0.00015394335496929918,
                        0.00031938194758669665,
                        -0.0010743063359756552,
                        0.0015499994309022347,
                        0.0001801904823483442,
                        -0.0005778766012246552,
                        0.0011080620724283534,
                        0.0013662581208809836,
                        6.402508957395766e-05,
                        0.00034595496656552325,
                        -0.0008732307403950914,
                        0.0006065567750850758,
                        -0.002289936319964752,
                        -0.0002229683508912121,
                        -7.040521669574751e-05,
                        0.0015151727097663763,
                        -0.000467613122137946,
                        0.0007763427732927239,
                        0.0018948524475448391,
                        0.0006843281931036687,
                        0.0013434814521653068,
                        0.0014586629262955406,
                        -0.0005130472375241066,
                        -0.001137018329994935,
                        -0.00039299432673743813,
                        -0.0006876038076467782,
                        -0.0002577639071108409,
                        0.0007880108943574116,
                        -0.00041438174550630953,
                        0.0018537247533004107,
                        -3.359608181029796e-05,
                        -0.00038976354577241023,
                        0.0002741679402149052,
                        0.00044045900064260097,
                        -0.00022863363670003596,
                        -0.0007870619552993733,
                        -0.00038012703518757097,
                        0.0012806799399677916,
                        0.0006716596488011256,
                        0.0005077455628248167,
                        -0.0006062319965897265,
                        0.0023375345318756174,
                        -0.0014532336925999515,
                        -0.001109210759125422,
                        0.0001931163047230976,
                        -0.00017448611959600336,
                        -0.0002323207696767173,
                        0.000520765825642332,
                        0.0007941875109698252,
                        -0.0008619173097890543,
                        -0.0003529228855731229,
                        -0.002309746156312567,
                        -0.0007699317489526526,
                        0.0014936903621659112,
                        0.0007044766858476609,
                        0.0016716491593488638,
                        -0.00020488006800506168,
                        0.00036750548503249617,
                        0.0004707490379474819,
                        0.000991701600207338,
                        0.0004901285812717716,
                        -7.750591395779814e-05,
                        -0.0005355738130794864,
                        0.0008153938354930918,
                        0.00032006354996349037,
                        0.00159626065893906,
                        -0.0005107688763350417,
                        -0.0004147743878567731,
                        0.001986565458642138,
                        0.0012114959599009505,
                        0.00013803583681693918,
                        -0.0008454244857663843,
                        0.0007373719272400105,
                        0.0006773250512274311,
                        0.00021435784172911448,
                        0.0004214616649334493,
                        3.1822961712518345e-05,
                        -0.00022029418673726018,
                        3.879184683941825e-05,
                        0.0008439163507911237,
                        -0.0010236119374097791,
                        0.001156362086854053,
                        -0.00194600514112462,
                        -0.0014518249275362676,
                        0.0006027162989284327,
                        0.0003382093259270925,
                        -0.0004857643015196693,
                        0.00021099617017242967,
                        0.0015601164762394828,
                        0.0013815468796877488,
                        0.00015464826665616174,
                        0.0006844386459631722,
                        -0.00034797700806674933,
                        0.0011252526639812862,
                        -0.001261367075987999,
                        -0.0013216200159740204,
                        0.0006373349407817167,
                        -7.891009075774567e-05,
                        7.124987393771274e-06,
                        -0.0009603790472225372,
                        0.002782204420772381,
                        -0.00033035115546429307,
                        0.00011413744246728266,
                        0.001032255700138501,
                        -0.0013465369217090866,
                        0.0003468712480615025,
                        -0.00020430252809759924,
                        0.00014983182227704296,
                        -0.000657902274388123,
                        -0.0003240563204795578,
                        -0.0014284221934109205,
                        0.0009540585799299155,
                        -0.0011645125580374404,
                        0.0001957688644716714,
                        0.0003928071690688221,
                        -2.0333688431647148e-05,
                        -4.9826673683373905e-05,
                        0.0017770666880599986,
                        -0.0015679444616497602,
                        0.0011473199624872405,
                        -0.0012326763005019905,
                        -0.0010587411575859115,
                        -0.001641040741670772,
                        -0.00015694039452122442,
                        0.0007998817834458343,
                        -0.0008042791624622646,
                        -0.0009062665304231578,
                        -0.0005299740059789683,
                        0.000914521102000949,
                        -0.000215784520574226,
                        -0.0009078787478560162,
                        -0.0001960551901719091,
                        0.0013146686731047514,
                        0.00043940857891736133,
                        0.001578152290280854,
                        -0.001627479916956462,
                        0.001265870706810871,
                        -0.0005357566372825957,
                        0.0003263041075187862,
                        -8.464263693250689e-05,
                        -0.0007221520481012637,
                        0.00034705795637890295,
                        -0.0019252574196981264,
                        0.000628761844857487,
                        -0.00025976173517063683,
                        -0.00079386579128121,
                        -0.0021131680497106366,
                        -0.0018829126771634074,
                        -0.00010482617218604093,
                        0.00018161256027196806,
                        0.0013157766270870425,
                        0.0017936241326940389,
                        -0.0012683324957320702,
                        0.0011903527387861594,
                        0.0014183307912812426,
                        0.0006294035958683536,
                        0.001343611965297806,
                        -0.0007696690669559594,
                        0.00013051969833875298,
                        0.0004981101272566664,
                        0.0008559457376256932,
                        0.0005721650036704752,
                        -0.0007148765590086898,
                        0.00026945618351875505,
                        -0.0006658076225388052,
                        -0.00022562492210744027,
                        -5.856266421601458e-06,
                        -0.000608546674362185,
                        -0.0004314133553975297,
                        0.0006056438788889002,
                        0.001672110044455219,
                        0.0014264021653549752,
                        -0.0005282823754331151,
                        0.0002672044959585848,
                        0.000128665830327762,
                        -0.0003763440187969797,
                        -0.0006723450926639847,
                        -0.0016234537920991386,
                        0.0012588099188172402,
                        0.0003060446126820656,
                        -5.130644409132903e-05,
                        0.0012628967187163045,
                        0.000736373709222712,
                        -0.0005065340255082786,
                        0.0018363100857135468,
                        0.0011069921620655932,
                        0.0006093841049154223,
                        -0.001029184317415111,
                        0.0011725371236914893,
                        -0.0008948259243909226,
                        0.000983525835419984,
                        -0.0013585002267016606,
                        3.425098150268534e-05,
                        0.00023659021707188944,
                        -0.0004777048501040435,
                        -2.1403703487972447e-05,
                        0.00036570407469852965,
                        -0.0009692634977058307,
                        0.0013886881456293665,
                        0.0018980546815445178,
                        -0.0017820011965307043,
                        -0.0007189419967326,
                        0.0004185510908032846,
                        -0.0005720244418831676,
                        -0.0017054293012976041,
                        -2.444431646455485e-05,
                        7.91708024808578e-05,
                        -0.000903573144015626,
                        0.000537261087287544,
                        -0.0014905729957770738,
                        0.00021143288236669718,
                        0.00040273539269341163,
                        -0.0005965748629200763,
                        -0.00023214256795493955,
                        0.00016450437688592673,
                        -0.0015581576006789084,
                        0.00038814852055431677,
                        0.0005026657293648319,
                        -0.0010667418889898676,
                        -0.00010413507548527353,
                        0.0002705917510681395,
                        -0.0012804139261000636,
                        0.001507771954331246,
                        0.0003931872693504903,
                        -0.0023073472266939743,
                        0.0003290425197042207,
                        -0.00021969798947669796,
                        -0.0017877741731543103,
                        -0.0011667899767456068,
                        0.0019191757487272139,
                        0.00043922931683037294,
                        0.0008692804033914906,
                        -0.00092941907837223,
                        -0.0008361650597988112,
                        0.0002758120879853407,
                        0.0014818292241792568,
                        8.932311806073117e-05,
                        -0.0020504204963956484,
                        -0.00185564578211172,
                        0.000632641646462385,
                        0.00016836604300377842,
                        -0.0007173979903099517,
                        0.0006481251463110727,
                        -0.0010392990717258126,
                        0.0010152798235861158,
                        0.00044506266887931194,
                        0.002170879482265297,
                        0.0005646418650929554,
                        0.0036121339547043386,
                        -0.0006809998497276694,
                        0.00044115523316172765,
                        0.0012079006028504551,
                        -3.4006073062984766e-05,
                        0.0025710756223540692,
                        -0.0019490819130511135,
                        0.0005979608508413889,
                        0.0006007368286069125,
                        -0.0002727648885047013,
                        -0.0006279317858559116,
                        -0.00038865091741069113,
                        0.00025973931124491384,
                        -0.0009350261754181891,
                        0.0004961810767642842,
                        0.0010318905448337538,
                        -0.0003521273376623066,
                        -0.0001711678724197007,
                        -0.0015889498321158546,
                        0.0009821405959540696,
                        -0.0009196821830847092,
                        -0.0002586581159862314,
                        -0.0007000830620069096,
                        -0.001826593856424225,
                        0.0006544898448330477,
                        0.0005075491773385214,
                        -0.0006836158617352019,
                        -1.574156514566894e-05,
                        -0.0006726345877944565,
                        0.00017568863797778477,
                        0.0006100309283275887,
                        0.002950804240916731,
                        -0.0007119868796525497,
                        -0.00012832783045746323,
                        -0.0005144574448437162,
                        -0.0012821705042003278,
                        -0.0016479985499433462,
                        -0.0008507150372687453,
                        -0.0007963094469526065,
                        -0.00024689839198113804,
                        -0.000397305785098815,
                        -0.00014932992305902683,
                        0.0002623308407709458,
                        0.002064297841552459,
                        0.001473126315665212,
                        0.0009452248364724531,
                        0.0007480266969295328,
                        5.2730122899733005e-05,
                        0.0001487226582185329,
                        -0.0006967825473040122,
                        0.00023053886980693543,
                        0.0022878183578869346,
                        0.00046378998961406565,
                        0.00048174208828572775,
                        -0.0018525100053966555,
                        -0.0004938208353229407,
                        -0.00029787523666546925,
                        -0.0015203361860872363,
                        -0.0007881434414975817,
                        0.000553989348025979,
                        -0.0004275465329269598,
                        -0.0018950550364065487,
                        0.0012681777457939762,
                        0.0007794028517525778,
                        -0.002634701196738909,
                        0.0006232276030337239,
                        -0.0010568316866853757,
                        0.0007966909448327411,
                        -0.00045391575332420493,
                        0.0014375343119297159,
                        0.00040876955582226047,
                        -0.0009762796867399181,
                        -0.0006061822614384989,
                        -0.00032069213121067,
                        0.0006376447692120522,
                        -0.002068478383255537,
                        -0.0009420827193833785,
                        -0.0002227860310894839,
                        0.0016256772575250565,
                        0.001934617108769828,
                        0.0010197005136019788,
                        -8.791777678168978e-05,
                        -0.001778117037318184,
                        -0.0003534793123698195,
                        -0.0004927536238691143,
                        -0.0001873127292651893,
                        -0.00022059142094567197,
                        -0.0005254104388119514,
                        9.782533242126394e-05,
                        0.0007518803269431759,
                        0.0011996845436857224,
                        -0.0007764879962189224,
                        0.00034204193840587646,
                        0.0003473937033209201,
                        -0.001813022626839804,
                        -0.00020995131982523097,
                        -0.0007585817778289856,
                        0.00011193953645049648,
                        -0.00021005247455035798,
                        -0.001075151617675976,
                        0.003225483616031211,
                        5.360668843884214e-05,
                        0.0009224908956639116,
                        -1.1504688481405628e-05,
                        -0.0001891271882781493,
                        0.0009953332062411107,
                        -4.786355359037752e-05,
                        -0.0002467810577935729,
                        0.00011938351619740285,
                        0.00020151627669188818,
                        -0.002380037184077296,
                        0.00032074483793542664,
                        -0.0017302669880902126,
                        0.0010775705486379757,
                        -0.0005877483203556667,
                        -0.0015410296524738416,
                        -0.001114724640516473,
                        -6.515937569872687e-05,
                        -0.0018041965528187048,
                        -0.0007888185335957405,
                        -4.992186930682142e-05,
                        0.0008158947549890888,
                        0.00024009010261862073,
                        0.0007276135329938087,
                        -0.0005350228531500003,
                        -0.0011903597547755535,
                        0.00026070616373257045,
                        -0.0013139935483875037,
                        0.0007994851557049219,
                        0.0004397522960139462,
                        3.0158788902466033e-05,
                        -0.001536652784518652,
                        0.0004015636250204619,
                        0.0004895223710984323,
                        0.0005253525360192815,
                        -0.0002754857521914058,
                        0.00047010219175208173,
                        -0.0013874710525031363,
                        -0.002229564851646994,
                        -0.00016921224374619472,
                        -0.0009923316666471625,
                        -0.00023836556850763025,
                        -0.0028529700355058303,
                        0.0010992143762393867,
                        -0.0015514854601554248,
                        -0.00015416777218716035,
                        -0.0011891387490140961,
                        -0.000293118473296331,
                        -0.0010149271102235632,
                        -0.0008307107433957539,
                        0.00013886355575238563,
                        0.0012416478892472473,
                        0.0012470484093662453,
                        -0.001505247357461018,
                        -0.0005563328519672764,
                        0.00020267041922123434,
                        0.0014152455862992254,
                        3.87060018821712e-06,
                        -0.000576860565980846,
                        0.00029229818526840476,
                        0.001104823184244158,
                        0.0012739148195379819,
                        0.0011283609297938495,
                        -0.0008196701902734169,
                        -0.0016000115826747354,
                        -0.00042141427761403793,
                        0.0017506048205919525,
                        -0.001165538896923708,
                        -0.0005519878388481329,
                        0.00032244181952341633,
                        0.0005224326244094529,
                        0.0019943090269779434,
                        -0.000820662933430292,
                        0.0014188884659172118,
                        -0.0012456903606712097,
                        0.001133755102139561,
                        0.0004425044146551149,
                        -0.0006502190400472443,
                        -0.0011083532559895792,
                        0.00023370750020270195,
                        -0.0008647341192692373,
                        -0.0010082552922241394,
                        -5.808943380162371e-05,
                        0.0005859667314552674,
                        -0.00016293425548589402,
                        -0.00111674674337429,
                        0.00015565617833421735,
                        -0.00015281519729763585,
                        -0.0006718744209066499,
                        0.0009163113101073257,
                        -0.001912421387528776,
                        -0.0013454050744597472,
                        -0.001176004117041273,
                        0.00011381515951025565,
                        -0.001277679997714039,
                        0.00046959238188331903,
                        -0.00017021496244181677,
                        0.000363778649660281,
                        0.0001745066193352425,
                        0.0002831235768545281,
                        0.0010104044035647059,
                        0.0005974320319201285,
                        -0.0011594026481660728,
                        0.0010088917864938918,
                        0.0018207201526734445,
                        -0.0018968384513007247,
                        -0.0007737563893333438,
                        4.9176142388255386e-05,
                        -8.596151824470216e-07,
                        0.0009554359870715018,
                        -0.0012028730958184883,
                        0.0010893305511979498,
                        0.0006816948028713372,
                        3.6150924225134966e-05,
                        -0.00012192214337449182,
                        0.0002978267926754911,
                        0.0009658685181985593,
                        0.001979855563125771,
                        -0.0007929128071511559,
                        -0.001159119123115701,
                        0.0016436095232036268,
                        0.00024543194424042733,
                        -0.001092572893403649,
                        -0.0007622671056983562,
                        0.0011586591070729792,
                        0.00030511757558586227,
                        0.00026325765218668473,
                        0.0002733136050633862,
                        -0.0018737700552477522,
                        -0.0002060176834036936,
                        0.0004010361428641842,
                        -0.0008330235957889982,
                        -0.00026215331386914,
                        -0.0016642989503824295,
                        -0.0009265263080738577,
                        -0.00046932759818886754,
                        -0.00051955370965281,
                        -0.00202845795440108,
                        -0.0006209079251625777,
                        -0.00040401042273751877,
                        0.0018875162855987093,
                        0.0007951644724603986,
                        -0.001517818830016855,
                        -0.0005135488921449087,
                        -0.00016978092870513094,
                        -0.0008643905928309596,
                        -0.00036755935473097576,
                        -0.001413698547848822,
                        -0.0012276233357974842,
                        0.0016425923075331094,
                        -0.0005754221105092052,
                        0.0004402625576273875,
                        -0.0036072003770307817,
                        0.0003977333193278463,
                        -0.00118244568136899,
                        0.0002770674860702491,
                        7.468707821989344e-05,
                        0.0005392299111128401,
                        -0.0011287466182004827,
                        0.001318732150675827,
                        0.0003794027213258367,
                        -0.0003909891762194725,
                        0.00045605054287571454,
                        -0.00022494328349939133,
                        -0.00012051358009411473,
                        -0.0007858566395439465,
                        -0.000661962809577148,
                        -0.0003255829311592871,
                        0.0012242278079941582,
                        -0.000751581627761167,
                        0.0006872420233949418,
                        0.0014049679076776724,
                        0.0015373747735305337,
                        0.0008209728869259658,
                        -0.0008819424209863544,
                        -0.0012334721017921324,
                        -0.0015581789228629212,
                        -0.0015917940497122021,
                        -6.389444506779137e-05,
                        -0.0013645676201554675,
                        0.000341574074500902,
                        0.0008885493660789336,
                        0.0002702060937284456,
                        -0.00091873938766494,
                        -0.0007667668143608045,
                        -0.0005958670829452597,
                        -0.0010351449704137314,
                        -0.0004746510449567574,
                        0.0003454382518067609,
                        0.00030230890458343885,
                        0.0012209499583690827,
                        -0.0003763593487081099,
                        0.0010866800501067215,
                        0.0012676961955870494,
                        0.00038205907085990336,
                        0.0005843057078605546,
                        0.0002888161166648598,
                        7.141551035121149e-05,
                        -0.0023979089310618667,
                        0.0013316784463043138,
                        0.001074968350423736,
                        -0.0014562295062528674,
                        -0.0012111349934789686,
                        0.001097172732936581,
                        -0.0011039538470327117,
                        -0.00020865494538588629,
                        0.00015789326556519873,
                        0.0008849075921427036,
                        0.0017703518181511788,
                        -0.00048678821676316947,
                        -0.0013554510582647942,
                        0.0006570830908388637,
                        -0.0010029724282343553,
                        0.0012773625044350937,
                        -0.0005947134898389502,
                        0.0010926572896422246,
                        -0.001227522009018181,
                        -0.00015897194012336885,
                        0.0009311517946487382,
                        0.0007251514438442614,
                        -4.2464843550223446e-05,
                        0.000748050777989654,
                        0.0017811152986678706,
                        0.0006684255781863146
                    ]
                },
                {
                    "bias": -1.0,
                    "weights": [
                        0.0026626707128260367,
                        0.0008790909093812486,
                        -0.00025240554791589466,
                        0.0006590041127567116,
                        -2.415670493663913e-05,
                        0.0014370309934955228,
                        -0.0003480902480468305,
                        0.0014466125676958035,
                        0.0020126821617061164,
                        0.00234391710158548,
                        0.0011153558573970344,
                        -0.00015046981540220076,
                        0.0003418295753476292,
                        -0.001241067796174868,
                        -3.7785058360382104e-05,
                        0.0009053311402002221,
                        0.0010537244159217424,
                        -0.0020094826864079343,
                        -0.0005751742021263738,
                        -0.0008340369427264141,
                        0.0007846572142625296,
                        0.0008581612191118571,
                        -0.0020356872780120778,
                        0.0001074176875348213,
                        0.00013258858991208194,
                        -0.0005347752788416315,
                        0.00028411661612361117,
                        0.0002153585008992419,
                        0.0009694883572518833,
                        -6.951895705840623e-05,
                        -4.672408010066277e-06,
                        4.4489256783010545e-05,
                        -0.0013815071929975647,
                        -0.0002989820382160628,
                        -0.0012839096555956127,
                        0.0005416789231484458,
                        -0.0011328671657099766,
                        -0.00118029569823527,
                        0.0005257747927368301,
                        0.000503457116624201,
                        -0.0007706943068277068,
                        0.0016986462166493584,
                        -0.0003000158307385354,
                        -0.00036574204529022357,
                        -0.0010055368322533945,
                        0.0011652386367518653,
                        0.00042494814052774615,
                        -0.000989241972767876,
                        -0.000629417480444998,
                        -0.0005960442900013541,
                        0.00028224741696010887,
                        0.0008323165162399358,
                        -0.00041656630525565755,
                        0.001909931179930006,
                        0.00040796204390112085,
                        -0.00086230870230138,
                        0.0008271066581839308,
                        0.0003410054670608358,
                        0.0012377365323128992,
                        -0.0017843481641346744,
                        0.0012507338437980626,
                        0.0002568879633086527,
                        -0.0002944590816176601,
                        0.0006298073105132174,
                        -0.000819184504166843,
                        -4.6999982512037733e-05,
                        0.000637451305388907,
                        0.0017493098538017117,
                        -0.0005453396175051329,
                        0.0011974517632691434,
                        -0.0009674552469234583,
                        0.0010653628416638359,
                        0.00021989779667581363,
                        -0.0001862976373828053,
                        0.0007463725639967885,
                        -0.0004479968652895819,
                        0.0005590158119850703,
                        -0.0015326737619012429,
                        0.001672809865126915,
                        -0.0025675756733286683,
                        -0.0004000423465742635,
                        -0.001029154890980415,
                        0.0002700522474805892,
                        -0.001001408625591057,
                        -8.401575190637801e-05,
                        -1.262221215248292e-05,
                        0.0019466025846826467,
                        -0.0019948365000454515,
                        0.0011764415492086851,
                        -0.0011590760310515823,
                        -0.0014765743199768187,
                        -0.0006417846827527406,
                        0.0010119315673145705,
                        0.0003530827419865095,
                        0.0010917023478038924,
                        0.00022085669422734444,
                        0.001129316041337423,
                        0.001486384579228766,
                        -0.00044923280657244147,
                        0.0008370056275015901,
                        -0.00019039988558743856,
                        0.000741706767399837,
                        0.00047455719389991345,
                        0.000597107524462352,
                        -0.001784720729166619,
                        -0.0003377200505578838,
                        0.00044164365031347573,
                        -0.0007065634650792852,
                        -0.0012000675415199352,
                        0.0022341452689719414,
                        -0.0007835970979691379,
                        0.0011085530191755656,
                        -0.0008943208307431206,
                        -0.00014996513285387976,
                        0.00041374032620155205,
                        -0.001210586714860487,
                        0.0007693333054173957,
                        -0.0006626550269721008,
                        0.000367425021871611,
                        -0.000683392086837238,
                        -0.00012392707017112384,
                        0.00018391654413269428,
                        -7.296126461054388e-05,
                        0.00028398131323214697,
                        -0.0012677311564458214,
                        0.0005391096588020334,
                        0.0005547682300304897,
                        3.622732843733264e-05,
                        -0.0010716928520544372,
                        -0.0012759423455584744,
                        0.001828751097060215,
                        -0.0002639716569656219,
                        0.0008775103966080938,
                        0.0011539878691692257,
                        -0.001070960654020287,
                        0.00042098939252659633,
                        0.0014988182892189648,
                        -0.0020777210128301456,
                        0.0010763180712499514,
                        0.00028872647804409915,
                        -0.0006261298516682346,
                        0.0002183669038731388,
                        -0.0007258647150760852,
                        -0.0009647161482192242,
                        0.0006794767537868149,
                        -0.0022992301528634304,
                        0.00013333832237386379,
                        0.0013168223081507675,
                        -0.00031077505032709373,
                        0.002260585564572832,
                        -0.0002496314145863386,
                        0.00114276559487965,
                        -0.0012008452364593175,
                        0.0012088169235699485,
                        -2.293804132855161e-05,
                        0.000841765721919801,
                        1.3797661199026818e-05,
                        -0.0018814314693229896,
                        0.000609891457706422,
                        0.00025483863917217056,
                        -0.0016540677369960813,
                        -0.0002952247585055215,
                        -9.040007744820981e-05,
                        0.00037799295432490253,
                        -0.0003573915878761602,
                        -0.0017028412143529662,
                        0.0009262359218706887,
                        -0.0004811918328776538,
                        -0.0022859273063767773,
                        -0.00013716031928453408,
                        0.0009504464736987934,
                        0.0003228372018864936,
                        -0.0007845003377762701,
                        -0.0006666226077098373,
                        -0.0007668084769179467,
                        -0.0020594502872495327,
                        -0.0002752787818754344,
                        0.0006731741093245825,
                        0.001611286337452685,
                        -0.00011886371598802624,
                        0.0014408310690629859,
                        0.0006276301873298095,
                        0.00038848424702426994,
                        0.0006255708404082562,
                        -0.00024336745042825985,
                        0.0001711687846191468,
                        8.755732681700178e-05,
                        -0.0005336691033750122,
                        -0.000601029052269002,
                        -0.0012743152677279007,
                        0.0008634298020068404,
                        -0.00018285115600259866,
                        4.3169909562181764e-05,
                        0.0010643114990383958,
                        -0.0002722495610019186,
                        -0.0015368138259231568,
                        0.001202049732877839,
                        -0.00037148900672984495,
                        0.00014935311101503106,
                        -0.000673582145346348,
                        -0.0012313707853812553,
                        0.0012823961493948443,
                        0.00043904234682476043,
                        -0.00012106739533290443,
                        0.000383874212246173,
                        0.0005817676790096294,
                        0.0005614514761331696,
                        -0.0014574120767309592,
                        0.0004833015124988594,
                        -0.00029114944386688144,
                        -0.00040282627241967857,
                        0.00013406983991103306,
                        0.00015394335496929918,
                        0.00031938194758669665,
                        -0.0010743063359756552,
                        0.0015499994309022347,
                        0.0001801904823483442,
                        -0.0005778766012246552,
                        0.0011080620724283534,
                        0.0013662581208809836,
                        6.402508957395766e-05,
                        0.00034595496656552325,
                        -0.0008732307403950914,
                        0.0006065567750850758,
                        -0.002289936319964752,
                        -0.0002229683508912121,
                        -7.040521669574751e-05,
                        0.0015151727097663763,
                        -0.000467613122137946,
                        0.0007763427732927239,
                        0.0018948524475448391,
                        0.0006843281931036687,
                        0.0013434814521653068,
                        0.0014586629262955406,
                        -0.0005130472375241066,
                        -0.001137018329994935,
                        -0.00039299432673743813,
                        -0.0006876038076467782,
                        -0.0002577639071108409,
                        0.0007880108943574116,
                        -0.00041438174550630953,
                        0.0018537247533004107,
                        -3.359608181029796e-05,
                        -0.00038976354577241023,
                        0.0002741679402149052,
                        0.00044045900064260097,
                        -0.00022863363670003596,
                        -0.0007870619552993733,
                        -0.00038012703518757097,
                        0.0012806799399677916,
                        0.0006716596488011256,
                        0.0005077455628248167,
                        -0.0006062319965897265,
                        0.0023375345318756174,
                        -0.0014532336925999515,
                        -0.001109210759125422,
                        0.0001931163047230976,
                        -0.00017448611959600336,
                        -0.0002323207696767173,
                        0.000520765825642332,
                        0.0007941875109698252,
                        -0.0008619173097890543,
                        -0.0003529228855731229,
                        -0.002309746156312567,
                        -0.0007699317489526526,
                        0.0014936903621659112,
                        0.0007044766858476609,
                        0.0016716491593488638,
                        -0.00020488006800506168,
                        0.00036750548503249617,
                        0.0004707490379474819,
                        0.000991701600207338,
                        0.0004901285812717716,
                        -7.750591395779814e-05,
                        -0.0005355738130794864,
                        0.0008153938354930918,
                        0.00032006354996349037,
                        0.00159626065893906,
                        -0.0005107688763350417,
                        -0.0004147743878567731,
                        0.001986565458642138,
                        0.0012114959599009505,
                        0.00013803583681693918,
                        -0.0008454244857663843,
                        0.0007373719272400105,
                        0.0006773250512274311,
                        0.00021435784172911448,
                        0.0004214616649334493,
                        3.1822961712518345e-05,
                        -0.00022029418673726018,
                        3.879184683941825e-05,
                        0.0008439163507911237,
                        -0.0010236119374097791,
                        0.001156362086854053,
                        -0.00194600514112462,
                        -0.0014518249275362676,
                        0.0006027162989284327,
                        0.0003382093259270925,
                        -0.0004857643015196693,
                        0.00021099617017242967,
                        0.0015601164762394828,
                        0.0013815468796877488,
                        0.00015464826665616174,
                        0.0006844386459631722,
                        -0.00034797700806674933,
                        0.0011252526639812862,
                        -0.001261367075987999,
                        -0.0013216200159740204,
                        0.0006373349407817167,
                        -7.891009075774567e-05,
                        7.124987393771274e-06,
                        -0.0009603790472225372,
                        0.002782204420772381,
                        -0.00033035115546429307,
                        0.00011413744246728266,
                        0.001032255700138501,
                        -0.0013465369217090866,
                        0.0003468712480615025,
                        -0.00020430252809759924,
                        0.00014983182227704296,
                        -0.000657902274388123,
                        -0.0003240563204795578,
                        -0.0014284221934109205,
                        0.0009540585799299155,
                        -0.0011645125580374404,
                        0.0001957688644716714,
                        0.0003928071690688221,
                        -2.0333688431647148e-05,
                        -4.9826673683373905e-05,
                        0.0017770666880599986,
                        -0.0015679444616497602,
                        0.0011473199624872405,
                        -0.0012326763005019905,
                        -0.0010587411575859115,
                        -0.001641040741670772,
                        -0.00015694039452122442,
                        0.0007998817834458343,
                        -0.0008042791624622646,
                        -0.0009062665304231578,
                        -0.0005299740059789683,
                        0.000914521102000949,
                        -0.000215784520574226,
                        -0.0009078787478560162,
                        -0.0001960551901719091,
                        0.0013146686731047514,
                        0.00043940857891736133,
                        0.001578152290280854,
                        -0.001627479916956462,
                        0.001265870706810871,
                        -0.0005357566372825957,
                        0.0003263041075187862,
                        -8.464263693250689e-05,
                        -0.0007221520481012637,
                        0.00034705795637890295,
                        -0.0019252574196981264,
                        0.000628761844857487,
                        -0.00025976173517063683,
                        -0.00079386579128121,
                        -0.0021131680497106366,
                        -0.0018829126771634074,
                        -0.00010482617218604093,
                        0.00018161256027196806,
                        0.0013157766270870425,
                        0.0017936241326940389,
                        -0.0012683324957320702,
                        0.0011903527387861594,
                        0.0014183307912812426,
                        0.0006294035958683536,
                        0.001343611965297806,
                        -0.0007696690669559594,
                        0.00013051969833875298,
                        0.0004981101272566664,
                        0.0008559457376256932,
                        0.0005721650036704752,
                        -0.0007148765590086898,
                        0.00026945618351875505,
                        -0.0006658076225388052,
                        -0.00022562492210744027,
                        -5.856266421601458e-06,
                        -0.000608546674362185,
                        -0.0004314133553975297,
                        0.0006056438788889002,
                        0.001672110044455219,
                        0.0014264021653549752,
                        -0.0005282823754331151,
                        0.0002672044959585848,
                        0.000128665830327762,
                        -0.0003763440187969797,
                        -0.0006723450926639847,
                        -0.0016234537920991386,
                        0.0012588099188172402,
                        0.0003060446126820656,
                        -5.130644409132903e-05,
                        0.0012628967187163045,
                        0.000736373709222712,
                        -0.0005065340255082786,
                        0.0018363100857135468,
                        0.0011069921620655932,
                        0.0006093841049154223,
                        -0.001029184317415111,
                        0.0011725371236914893,
                        -0.0008948259243909226,
                        0.000983525835419984,
                        -0.0013585002267016606,
                        3.425098150268534e-05,
                        0.00023659021707188944,
                        -0.0004777048501040435,
                        -2.1403703487972447e-05,
                        0.00036570407469852965,
                        -0.0009692634977058307,
                        0.0013886881456293665,
                        0.0018980546815445178,
                        -0.0017820011965307043,
                        -0.0007189419967326,
                        0.0004185510908032846,
                        -0.0005720244418831676,
                        -0.0017054293012976041,
                        -2.444431646455485e-05,
                        7.91708024808578e-05,
                        -0.000903573144015626,
                        0.000537261087287544,
                        -0.0014905729957770738,
                        0.00021143288236669718,
                        0.00040273539269341163,
                        -0.0005965748629200763,
                        -0.00023214256795493955,
                        0.00016450437688592673,
                        -0.0015581576006789084,
                        0.00038814852055431677,
                        0.0005026657293648319,
                        -0.0010667418889898676,
                        -0.00010413507548527353,
                        0.0002705917510681395,
                        -0.0012804139261000636,
                        0.001507771954331246,
                        0.0003931872693504903,
                        -0.0023073472266939743,
                        0.0003290425197042207,
                        -0.00021969798947669796,
                        -0.0017877741731543103,
                        -0.0011667899767456068,
                        0.0019191757487272139,
                        0.00043922931683037294,
                        0.0008692804033914906,
                        -0.00092941907837223,
                        -0.0008361650597988112,
                        0.0002758120879853407,
                        0.0014818292241792568,
                        8.932311806073117e-05,
                        -0.0020504204963956484,
                        -0.00185564578211172,
                        0.000632641646462385,
                        0.00016836604300377842,
                        -0.0007173979903099517,
                        0.0006481251463110727,
                        -0.0010392990717258126,
                        0.0010152798235861158,
                        0.00044506266887931194,
                        0.002170879482265297,
                        0.0005646418650929554,
                        0.0036121339547043386,
                        -0.0006809998497276694,
                        0.00044115523316172765,
                        0.0012079006028504551,
                        -3.4006073062984766e-05,
                        0.0025710756223540692,
                        -0.0019490819130511135,
                        0.0005979608508413889,
                        0.0006007368286069125,
                        -0.0002727648885047013,
                        -0.0006279317858559116,
                        -0.00038865091741069113,
                        0.00025973931124491384,
                        -0.0009350261754181891,
                        0.0004961810767642842,
                        0.0010318905448337538,
                        -0.0003521273376623066,
                        -0.0001711678724197007,
                        -0.0015889498321158546,
                        0.0009821405959540696,
                        -0.0009196821830847092,
                        -0.0002586581159862314,
                        -0.0007000830620069096,
                        -0.001826593856424225,
                        0.0006544898448330477,
                        0.0005075491773385214,
                        -0.0006836158617352019,
                        -1.574156514566894e-05,
                        -0.0006726345877944565,
                        0.00017568863797778477,
                        0.0006100309283275887,
                        0.002950804240916731,
                        -0.0007119868796525497,
                        -0.00012832783045746323,
                        -0.0005144574448437162,
                        -0.0012821705042003278,
                        -0.0016479985499433462,
                        -0.0008507150372687453,
                        -0.0007963094469526065,
                        -0.00024689839198113804,
                        -0.000397305785098815,
                        -0.00014932992305902683,
                        0.0002623308407709458,
                        0.002064297841552459,
                        0.001473126315665212,
                        0.0009452248364724531,
                        0.0007480266969295328,
                        5.2730122899733005e-05,
                        0.0001487226582185329,
                        -0.0006967825473040122,
                        0.00023053886980693543,
                        0.0022878183578869346,
                        0.00046378998961406565,
                        0.00048174208828572775,
                        -0.0018525100053966555,
                        -0.0004938208353229407,
                        -0.00029787523666546925,
                        -0.0015203361860872363,
                        -0.0007881434414975817,
                        0.000553989348025979,
                        -0.0004275465329269598,
                        -0.0018950550364065487,
                        0.0012681777457939762,
                        0.0007794028517525778,
                        -0.002634701196738909,
                        0.0006232276030337239,
                        -0.0010568316866853757,
                        0.0007966909448327411,
                        -0.00045391575332420493,
                        0.0014375343119297159,
                        0.00040876955582226047,
                        -0.0009762796867399181,
                        -0.0006061822614384989,
                        -0.00032069213121067,
                        0.0006376447692120522,
                        -0.002068478383255537,
                        -0.0009420827193833785,
                        -0.0002227860310894839,
                        0.0016256772575250565,
                        0.001934617108769828,
                        0.0010197005136019788,
                        -8.791777678168978e-05,
                        -0.001778117037318184,
                        -0.0003534793123698195,
                        -0.0004927536238691143,
                        -0.0001873127292651893,
                        -0.00022059142094567197,
                        -0.0005254104388119514,
                        9.782533242126394e-05,
                        0.0007518803269431759,
                        0.0011996845436857224,
                        -0.0007764879962189224,
                        0.00034204193840587646,
                        0.0003473937033209201,
                        -0.001813022626839804,
                        -0.00020995131982523097,
                        -0.0007585817778289856,
                        0.00011193953645049648,
                        -0.00021005247455035798,
                        -0.001075151617675976,
                        0.003225483616031211,
                        5.360668843884214e-05,
                        0.0009224908956639116,
                        -1.1504688481405628e-05,
                        -0.0001891271882781493,
                        0.0009953332062411107,
                        -4.786355359037752e-05,
                        -0.0002467810577935729,
                        0.00011938351619740285,
                        0.00020151627669188818,
                        -0.002380037184077296,
                        0.00032074483793542664,
                        -0.0017302669880902126,
                        0.0010775705486379757,
                        -0.0005877483203556667,
                        -0.0015410296524738416,
                        -0.001114724640516473,
                        -6.515937569872687e-05,
                        -0.0018041965528187048,
                        -0.0007888185335957405,
                        -4.992186930682142e-05,
                        0.0008158947549890888,
                        0.00024009010261862073,
                        0.0007276135329938087,
                        -0.0005350228531500003,
                        -0.0011903597547755535,
                        0.00026070616373257045,
                        -0.0013139935483875037,
                        0.0007994851557049219,
                        0.0004397522960139462,
                        3.0158788902466033e-05,
                        -0.001536652784518652,
                        0.0004015636250204619,
                        0.0004895223710984323,
                        0.0005253525360192815,
                        -0.0002754857521914058,
                        0.00047010219175208173,
                        -0.0013874710525031363,
                        -0.002229564851646994,
                        -0.00016921224374619472,
                        -0.0009923316666471625,
                        -0.00023836556850763025,
                        -0.0028529700355058303,
                        0.0010992143762393867,
                        -0.0015514854601554248,
                        -0.00015416777218716035,
                        -0.0011891387490140961,
                        -0.000293118473296331,
                        -0.0010149271102235632,
                        -0.0008307107433957539,
                        0.00013886355575238563,
                        0.0012416478892472473,
                        0.0012470484093662453,
                        -0.001505247357461018,
                        -0.0005563328519672764,
                        0.00020267041922123434,
                        0.0014152455862992254,
                        3.87060018821712e-06,
                        -0.000576860565980846,
                        0.00029229818526840476,
                        0.001104823184244158,
                        0.0012739148195379819,
                        0.0011283609297938495,
                        -0.0008196701902734169,
                        -0.0016000115826747354,
                        -0.00042141427761403793,
                        0.0017506048205919525,
                        -0.001165538896923708,
                        -0.0005519878388481329,
                        0.00032244181952341633,
                        0.0005224326244094529,
                        0.0019943090269779434,
                        -0.000820662933430292,
                        0.0014188884659172118,
                        -0.0012456903606712097,
                        0.001133755102139561,
                        0.0004425044146551149,
                        -0.0006502190400472443,
                        -0.0011083532559895792,
                        0.00023370750020270195,
                        -0.0008647341192692373,
                        -0.0010082552922241394,
                        -5.808943380162371e-05,
                        0.0005859667314552674,
                        -0.00016293425548589402,
                        -0.00111674674337429,
                        0.00015565617833421735,
                        -0.00015281519729763585,
                        -0.0006718744209066499,
                        0.0009163113101073257,
                        -0.001912421387528776,
                        -0.0013454050744597472,
                        -0.001176004117041273,
                        0.00011381515951025565,
                        -0.001277679997714039,
                        0.00046959238188331903,
                        -0.00017021496244181677,
                        0.000363778649660281,
                        0.0001745066193352425,
                        0.0002831235768545281,
                        0.0010104044035647059,
                        0.0005974320319201285,
                        -0.0011594026481660728,
                        0.0010088917864938918,
                        0.0018207201526734445,
                        -0.0018968384513007247,
                        -0.0007737563893333438,
                        4.9176142388255386e-05,
                        -8.596151824470216e-07,
                        0.0009554359870715018,
                        -0.0012028730958184883,
                        0.0010893305511979498,
                        0.0006816948028713372,
                        3.6150924225134966e-05,
                        -0.00012192214337449182,
                        0.0002978267926754911,
                        0.0009658685181985593,
                        0.001979855563125771,
                        -0.0007929128071511559,
                        -0.001159119123115701,
                        0.0016436095232036268,
                        0.00024543194424042733,
                        -0.001092572893403649,
                        -0.0007622671056983562,
                        0.0011586591070729792,
                        0.00030511757558586227,
                        0.00026325765218668473,
                        0.0002733136050633862,
                        -0.0018737700552477522,
                        -0.0002060176834036936,
                        0.0004010361428641842,
                        -0.0008330235957889982,
                        -0.00026215331386914,
                        -0.0016642989503824295,
                        -0.0009265263080738577,
                        -0.00046932759818886754,
                        -0.00051955370965281,
                        -0.00202845795440108,
                        -0.0006209079251625777,
                        -0.00040401042273751877,
                        0.0018875162855987093,
                        0.0007951644724603986,
                        -0.001517818830016855,
                        -0.0005135488921449087,
                        -0.00016978092870513094,
                        -0.0008643905928309596,
                        -0.00036755935473097576,
                        -0.001413698547848822,
                        -0.0012276233357974842,
                        0.0016425923075331094,
                        -0.0005754221105092052,
                        0.0004402625576273875,
                        -0.0036072003770307817,
                        0.0003977333193278463,
                        -0.00118244568136899,
                        0.0002770674860702491,
                        7.468707821989344e-05,
                        0.0005392299111128401,
                        -0.0011287466182004827,
                        0.001318732150675827,
                        0.0003794027213258367,
                        -0.0003909891762194725,
                        0.00045605054287571454,
                        -0.00022494328349939133,
                        -0.00012051358009411473,
                        -0.0007858566395439465,
                        -0.000661962809577148,
                        -0.0003255829311592871,
                        0.0012242278079941582,
                        -0.000751581627761167,
                        0.0006872420233949418,
                        0.0014049679076776724,
                        0.0015373747735305337,
                        0.0008209728869259658,
                        -0.0008819424209863544,
                        -0.0012334721017921324,
                        -0.0015581789228629212,
                        -0.0015917940497122021,
                        -6.389444506779137e-05,
                        -0.0013645676201554675,
                        0.000341574074500902,
                        0.0008885493660789336,
                        0.0002702060937284456,
                        -0.00091873938766494,
                        -0.0007667668143608045,
                        -0.0005958670829452597,
                        -0.0010351449704137314,
                        -0.0004746510449567574,
                        0.0003454382518067609,
                        0.00030230890458343885,
                        0.0012209499583690827,
                        -0.0003763593487081099,
                        0.0010866800501067215,
                        0.0012676961955870494,
                        0.00038205907085990336,
                        0.0005843057078605546,
                        0.0002888161166648598,
                        7.141551035121149e-05,
                        -0.0023979089310618667,
                        0.0013316784463043138,
                        0.001074968350423736,
                        -0.0014562295062528674,
                        -0.0012111349934789686,
                        0.001097172732936581,
                        -0.0011039538470327117,
                        -0.00020865494538588629,
                        0.00015789326556519873,
                        0.0008849075921427036,
                        0.0017703518181511788,
                        -0.00048678821676316947,
                        -0.0013554510582647942,
                        0.0006570830908388637,
                        -0.0010029724282343553,
                        0.0012773625044350937,
                        -0.0005947134898389502,
                        0.0010926572896422246,
                        -0.001227522009018181,
                        -0.00015897194012336885,
                        0.0009311517946487382,
                        0.0007251514438442614,
                        -4.2464843550223446e-05,
                        0.000748050777989654,
                        0.0017811152986678706,
                        0.0006684255781863146
                    ]
                },
                {
                    "bias": -1.0,
                    "weights": [
                        0.0026626707128260367,
                        0.0008790909093812486,
                        -0.00025240554791589466,
                        0.0006590041127567116,
                        -2.415670493663913e-05,
                        0.0014370309934955228,
                        -0.0003480902480468305,
                        0.0014466125676958035,
                        0.0020126821617061164,
                        0.00234391710158548,
                        0.0011153558573970344,
                        -0.00015046981540220076,
                        0.0003418295753476292,
                        -0.001241067796174868,
                        -3.7785058360382104e-05,
                        0.0009053311402002221,
                        0.0010537244159217424,
                        -0.0020094826864079343,
                        -0.0005751742021263738,
                        -0.0008340369427264141,
                        0.0007846572142625296,
                        0.0008581612191118571,
                        -0.0020356872780120778,
                        0.0001074176875348213,
                        0.00013258858991208194,
                        -0.0005347752788416315,
                        0.00028411661612361117,
                        0.0002153585008992419,
                        0.0009694883572518833,
                        -6.951895705840623e-05,
                        -4.672408010066277e-06,
                        4.4489256783010545e-05,
                        -0.0013815071929975647,
                        -0.0002989820382160628,
                        -0.0012839096555956127,
                        0.0005416789231484458,
                        -0.0011328671657099766,
                        -0.00118029569823527,
                        0.0005257747927368301,
                        0.000503457116624201,
                        -0.0007706943068277068,
                        0.0016986462166493584,
                        -0.0003000158307385354,
                        -0.00036574204529022357,
                        -0.0010055368322533945,
                        0.0011652386367518653,
                        0.00042494814052774615,
                        -0.000989241972767876,
                        -0.000629417480444998,
                        -0.0005960442900013541,
                        0.00028224741696010887,
                        0.0008323165162399358,
                        -0.00041656630525565755,
                        0.001909931179930006,
                        0.00040796204390112085,
                        -0.00086230870230138,
                        0.0008271066581839308,
                        0.0003410054670608358,
                        0.0012377365323128992,
                        -0.0017843481641346744,
                        0.0012507338437980626,
                        0.0002568879633086527,
                        -0.0002944590816176601,
                        0.0006298073105132174,
                        -0.000819184504166843,
                        -4.6999982512037733e-05,
                        0.000637451305388907,
                        0.0017493098538017117,
                        -0.0005453396175051329,
                        0.0011974517632691434,
                        -0.0009674552469234583,
                        0.0010653628416638359,
                        0.00021989779667581363,
                        -0.0001862976373828053,
                        0.0007463725639967885,
                        -0.0004479968652895819,
                        0.0005590158119850703,
                        -0.0015326737619012429,
                        0.001672809865126915,
                        -0.0025675756733286683,
                        -0.0004000423465742635,
                        -0.001029154890980415,
                        0.0002700522474805892,
                        -0.001001408625591057,
                        -8.401575190637801e-05,
                        -1.262221215248292e-05,
                        0.0019466025846826467,
                        -0.0019948365000454515,
                        0.0011764415492086851,
                        -0.0011590760310515823,
                        -0.0014765743199768187,
                        -0.0006417846827527406,
                        0.0010119315673145705,
                        0.0003530827419865095,
                        0.0010917023478038924,
                        0.00022085669422734444,
                        0.001129316041337423,
                        0.001486384579228766,
                        -0.00044923280657244147,
                        0.0008370056275015901,
                        -0.00019039988558743856,
                        0.000741706767399837,
                        0.00047455719389991345,
                        0.000597107524462352,
                        -0.001784720729166619,
                        -0.0003377200505578838,
                        0.00044164365031347573,
                        -0.0007065634650792852,
                        -0.0012000675415199352,
                        0.0022341452689719414,
                        -0.0007835970979691379,
                        0.0011085530191755656,
                        -0.0008943208307431206,
                        -0.00014996513285387976,
                        0.00041374032620155205,
                        -0.001210586714860487,
                        0.0007693333054173957,
                        -0.0006626550269721008,
                        0.000367425021871611,
                        -0.000683392086837238,
                        -0.00012392707017112384,
                        0.00018391654413269428,
                        -7.296126461054388e-05,
                        0.00028398131323214697,
                        -0.0012677311564458214,
                        0.0005391096588020334,
                        0.0005547682300304897,
                        3.622732843733264e-05,
                        -0.0010716928520544372,
                        -0.0012759423455584744,
                        0.001828751097060215,
                        -0.0002639716569656219,
                        0.0008775103966080938,
                        0.0011539878691692257,
                        -0.001070960654020287,
                        0.00042098939252659633,
                        0.0014988182892189648,
                        -0.0020777210128301456,
                        0.0010763180712499514,
                        0.00028872647804409915,
                        -0.0006261298516682346,
                        0.0002183669038731388,
                        -0.0007258647150760852,
                        -0.0009647161482192242,
                        0.0006794767537868149,
                        -0.0022992301528634304,
                        0.00013333832237386379,
                        0.0013168223081507675,
                        -0.00031077505032709373,
                        0.002260585564572832,
                        -0.0002496314145863386,
                        0.00114276559487965,
                        -0.0012008452364593175,
                        0.0012088169235699485,
                        -2.293804132855161e-05,
                        0.000841765721919801,
                        1.3797661199026818e-05,
                        -0.0018814314693229896,
                        0.000609891457706422,
                        0.00025483863917217056,
                        -0.0016540677369960813,
                        -0.0002952247585055215,
                        -9.040007744820981e-05,
                        0.00037799295432490253,
                        -0.0003573915878761602,
                        -0.0017028412143529662,
                        0.0009262359218706887,
                        -0.0004811918328776538,
                        -0.0022859273063767773,
                        -0.00013716031928453408,
                        0.0009504464736987934,
                        0.0003228372018864936,
                        -0.0007845003377762701,
                        -0.0006666226077098373,
                        -0.0007668084769179467,
                        -0.0020594502872495327,
                        -0.0002752787818754344,
                        0.0006731741093245825,
                        0.001611286337452685,
                        -0.00011886371598802624,
                        0.0014408310690629859,
                        0.0006276301873298095,
                        0.00038848424702426994,
                        0.0006255708404082562,
                        -0.00024336745042825985,
                        0.0001711687846191468,
                        8.755732681700178e-05,
                        -0.0005336691033750122,
                        -0.000601029052269002,
                        -0.0012743152677279007,
                        0.0008634298020068404,
                        -0.00018285115600259866,
                        4.3169909562181764e-05,
                        0.0010643114990383958,
                        -0.0002722495610019186,
                        -0.0015368138259231568,
                        0.001202049732877839,
                        -0.00037148900672984495,
                        0.00014935311101503106,
                        -0.000673582145346348,
                        -0.0012313707853812553,
                        0.0012823961493948443,
                        0.00043904234682476043,
                        -0.00012106739533290443,
                        0.000383874212246173,
                        0.0005817676790096294,
                        0.0005614514761331696,
                        -0.0014574120767309592,
                        0.0004833015124988594,
                        -0.00029114944386688144,
                        -0.00040282627241967857,
                        0.00013406983991103306,
                        0.00015394335496929918,
                        0.00031938194758669665,
                        -0.0010743063359756552,
                        0.0015499994309022347,
                        0.0001801904823483442,
                        -0.0005778766012246552,
                        0.0011080620724283534,
                        0.0013662581208809836,
                        6.402508957395766e-05,
                        0.00034595496656552325,
                        -0.0008732307403950914,
                        0.0006065567750850758,
                        -0.002289936319964752,
                        -0.0002229683508912121,
                        -7.040521669574751e-05,
                        0.0015151727097663763,
                        -0.000467613122137946,
                        0.0007763427732927239,
                        0.0018948524475448391,
                        0.0006843281931036687,
                        0.0013434814521653068,
                        0.0014586629262955406,
                        -0.0005130472375241066,
                        -0.001137018329994935,
                        -0.00039299432673743813,
                        -0.0006876038076467782,
                        -0.0002577639071108409,
                        0.0007880108943574116,
                        -0.00041438174550630953,
                        0.0018537247533004107,
                        -3.359608181029796e-05,
                        -0.00038976354577241023,
                        0.0002741679402149052,
                        0.00044045900064260097,
                        -0.00022863363670003596,
                        -0.0007870619552993733,
                        -0.00038012703518757097,
                        0.0012806799399677916,
                        0.0006716596488011256,
                        0.0005077455628248167,
                        -0.0006062319965897265,
                        0.0023375345318756174,
                        -0.0014532336925999515,
                        -0.001109210759125422,
                        0.0001931163047230976,
                        -0.00017448611959600336,
                        -0.0002323207696767173,
                        0.000520765825642332,
                        0.0007941875109698252,
                        -0.0008619173097890543,
                        -0.0003529228855731229,
                        -0.002309746156312567,
                        -0.0007699317489526526,
                        0.0014936903621659112,
                        0.0007044766858476609,
                        0.0016716491593488638,
                        -0.00020488006800506168,
                        0.00036750548503249617,
                        0.0004707490379474819,
                        0.000991701600207338,
                        0.0004901285812717716,
                        -7.750591395779814e-05,
                        -0.0005355738130794864,
                        0.0008153938354930918,
                        0.00032006354996349037,
                        0.00159626065893906,
                        -0.0005107688763350417,
                        -0.0004147743878567731,
                        0.001986565458642138,
                        0.0012114959599009505,
                        0.00013803583681693918,
                        -0.0008454244857663843,
                        0.0007373719272400105,
                        0.0006773250512274311,
                        0.00021435784172911448,
                        0.0004214616649334493,
                        3.1822961712518345e-05,
                        -0.00022029418673726018,
                        3.879184683941825e-05,
                        0.0008439163507911237,
                        -0.0010236119374097791,
                        0.001156362086854053,
                        -0.00194600514112462,
                        -0.0014518249275362676,
                        0.0006027162989284327,
                        0.0003382093259270925,
                        -0.0004857643015196693,
                        0.00021099617017242967,
                        0.0015601164762394828,
                        0.0013815468796877488,
                        0.00015464826665616174,
                        0.0006844386459631722,
                        -0.00034797700806674933,
                        0.0011252526639812862,
                        -0.001261367075987999,
                        -0.0013216200159740204,
                        0.0006373349407817167,
                        -7.891009075774567e-05,
                        7.124987393771274e-06,
                        -0.0009603790472225372,
                        0.002782204420772381,
                        -0.00033035115546429307,
                        0.00011413744246728266,
                        0.001032255700138501,
                        -0.0013465369217090866,
                        0.0003468712480615025,
                        -0.00020430252809759924,
                        0.00014983182227704296,
                        -0.000657902274388123,
                        -0.0003240563204795578,
                        -0.0014284221934109205,
                        0.0009540585799299155,
                        -0.0011645125580374404,
                        0.0001957688644716714,
                        0.0003928071690688221,
                        -2.0333688431647148e-05,
                        -4.9826673683373905e-05,
                        0.0017770666880599986,
                        -0.0015679444616497602,
                        0.0011473199624872405,
                        -0.0012326763005019905,
                        -0.0010587411575859115,
                        -0.001641040741670772,
                        -0.00015694039452122442,
                        0.0007998817834458343,
                        -0.0008042791624622646,
                        -0.0009062665304231578,
                        -0.0005299740059789683,
                        0.000914521102000949,
                        -0.000215784520574226,
                        -0.0009078787478560162,
                        -0.0001960551901719091,
                        0.0013146686731047514,
                        0.00043940857891736133,
                        0.001578152290280854,
                        -0.001627479916956462,
                        0.001265870706810871,
                        -0.0005357566372825957,
                        0.0003263041075187862,
                        -8.464263693250689e-05,
                        -0.0007221520481012637,
                        0.00034705795637890295,
                        -0.0019252574196981264,
                        0.000628761844857487,
                        -0.00025976173517063683,
                        -0.00079386579128121,
                        -0.0021131680497106366,
                        -0.0018829126771634074,
                        -0.00010482617218604093,
                        0.00018161256027196806,
                        0.0013157766270870425,
                        0.0017936241326940389,
                        -0.0012683324957320702,
                        0.0011903527387861594,
                        0.0014183307912812426,
                        0.0006294035958683536,
                        0.001343611965297806,
                        -0.0007696690669559594,
                        0.00013051969833875298,
                        0.0004981101272566664,
                        0.0008559457376256932,
                        0.0005721650036704752,
                        -0.0007148765590086898,
                        0.00026945618351875505,
                        -0.0006658076225388052,
                        -0.00022562492210744027,
                        -5.856266421601458e-06,
                        -0.000608546674362185,
                        -0.0004314133553975297,
                        0.0006056438788889002,
                        0.001672110044455219,
                        0.0014264021653549752,
                        -0.0005282823754331151,
                        0.0002672044959585848,
                        0.000128665830327762,
                        -0.0003763440187969797,
                        -0.0006723450926639847,
                        -0.0016234537920991386,
                        0.0012588099188172402,
                        0.0003060446126820656,
                        -5.130644409132903e-05,
                        0.0012628967187163045,
                        0.000736373709222712,
                        -0.0005065340255082786,
                        0.0018363100857135468,
                        0.0011069921620655932,
                        0.0006093841049154223,
                        -0.001029184317415111,
                        0.0011725371236914893,
                        -0.0008948259243909226,
                        0.000983525835419984,
                        -0.0013585002267016606,
                        3.425098150268534e-05,
                        0.00023659021707188944,
                        -0.0004777048501040435,
                        -2.1403703487972447e-05,
                        0.00036570407469852965,
                        -0.0009692634977058307,
                        0.0013886881456293665,
                        0.0018980546815445178,
                        -0.0017820011965307043,
                        -0.0007189419967326,
                        0.0004185510908032846,
                        -0.0005720244418831676,
                        -0.0017054293012976041,
                        -2.444431646455485e-05,
                        7.91708024808578e-05,
                        -0.000903573144015626,
                        0.000537261087287544,
                        -0.0014905729957770738,
                        0.00021143288236669718,
                        0.00040273539269341163,
                        -0.0005965748629200763,
                        -0.00023214256795493955,
                        0.00016450437688592673,
                        -0.0015581576006789084,
                        0.00038814852055431677,
                        0.0005026657293648319,
                        -0.0010667418889898676,
                        -0.00010413507548527353,
                        0.0002705917510681395,
                        -0.0012804139261000636,
                        0.001507771954331246,
                        0.0003931872693504903,
                        -0.0023073472266939743,
                        0.0003290425197042207,
                        -0.00021969798947669796,
                        -0.0017877741731543103,
                        -0.0011667899767456068,
                        0.0019191757487272139,
                        0.00043922931683037294,
                        0.0008692804033914906,
                        -0.00092941907837223,
                        -0.0008361650597988112,
                        0.0002758120879853407,
                        0.0014818292241792568,
                        8.932311806073117e-05,
                        -0.0020504204963956484,
                        -0.00185564578211172,
                        0.000632641646462385,
                        0.00016836604300377842,
                        -0.0007173979903099517,
                        0.0006481251463110727,
                        -0.0010392990717258126,
                        0.0010152798235861158,
                        0.00044506266887931194,
                        0.002170879482265297,
                        0.0005646418650929554,
                        0.0036121339547043386,
                        -0.0006809998497276694,
                        0.00044115523316172765,
                        0.0012079006028504551,
                        -3.4006073062984766e-05,
                        0.0025710756223540692,
                        -0.0019490819130511135,
                        0.0005979608508413889,
                        0.0006007368286069125,
                        -0.0002727648885047013,
                        -0.0006279317858559116,
                        -0.00038865091741069113,
                        0.00025973931124491384,
                        -0.0009350261754181891,
                        0.0004961810767642842,
                        0.0010318905448337538,
                        -0.0003521273376623066,
                        -0.0001711678724197007,
                        -0.0015889498321158546,
                        0.0009821405959540696,
                        -0.0009196821830847092,
                        -0.0002586581159862314,
                        -0.0007000830620069096,
                        -0.001826593856424225,
                        0.0006544898448330477,
                        0.0005075491773385214,
                        -0.0006836158617352019,
                        -1.574156514566894e-05,
                        -0.0006726345877944565,
                        0.00017568863797778477,
                        0.0006100309283275887,
                        0.002950804240916731,
                        -0.0007119868796525497,
                        -0.00012832783045746323,
                        -0.0005144574448437162,
                        -0.0012821705042003278,
                        -0.0016479985499433462,
                        -0.0008507150372687453,
                        -0.0007963094469526065,
                        -0.00024689839198113804,
                        -0.000397305785098815,
                        -0.00014932992305902683,
                        0.0002623308407709458,
                        0.002064297841552459,
                        0.001473126315665212,
                        0.0009452248364724531,
                        0.0007480266969295328,
                        5.2730122899733005e-05,
                        0.0001487226582185329,
                        -0.0006967825473040122,
                        0.00023053886980693543,
                        0.0022878183578869346,
                        0.00046378998961406565,
                        0.00048174208828572775,
                        -0.0018525100053966555,
                        -0.0004938208353229407,
                        -0.00029787523666546925,
                        -0.0015203361860872363,
                        -0.0007881434414975817,
                        0.000553989348025979,
                        -0.0004275465329269598,
                        -0.0018950550364065487,
                        0.0012681777457939762,
                        0.0007794028517525778,
                        -0.002634701196738909,
                        0.0006232276030337239,
                        -0.0010568316866853757,
