{
    "layers": [
        {
            "count": 16,
            "nodes": [
                {
                    "bias": -1.0,
                    "weights": [
                        0.03514087082586597,
                        -0.10482604687091439,
                        -0.023095902981008557,
                        -0.04618768991840451,
                        -0.057106849270300394,
                        0.040687973755816335,
                        0.04506557785940275,
                        0.033342369529141526,
                        0.07229126245261554,
                        -0.09044387286952442,
                        0.00784863238253546,
                        0.03389448091588464,
                        0.011546418760199514,
                        0.008487461020999286,
                        0.04519251633483206,
                        -0.019609654080754726
                    ]
                },
                {
                    "bias": -1.0,
                    "weights": [
                        0.03514087082586597,
                        -0.10482604687091439,
                        -0.023095902981008557,
                        -0.04618768991840451,
                        -0.057106849270300394,
                        0.040687973755816335,
                        0.04506557785940275,
                        0.033342369529141526,
                        0.07229126245261554,
                        -0.09044387286952442,
                        0.00784863238253546,
                        0.03389448091588464,
                        0.011546418760199514,
                        0.008487461020999286,
                        0.04519251633483206,
                        -0.019609654080754726
                    ]
                },
                {
                    "bias": -1.0,
                    "weights": [
                        0.03514087082586597,
                        -0.10482604687091439,
                        -0.023095902981008557,
                        -0.04618768991840451,
                        -0.057106849270300394,
                        0.040687973755816335,
                        0.04506557785940275,
                        0.033342369529141526,
                        0.07229126245261554,
                        -0.09044387286952442,
                        0.00784863238253546,
                        0.03389448091588464,
                        0.011546418760199514,
                        0.008487461020999286,
                        0.04519251633483206,
                        -0.019609654080754726
                    ]
                },
                {
                    "bias": -1.0,
                    "weights": [
                        0.03514087082586597,
                        -0.10482604687091439,
                        -0.023095902981008557,
                        -0.04618768991840451,
                        -0.057106849270300394,
                        0.040687973755816335,
                        0.04506557785940275,
                        0.033342369529141526,
                        0.07229126245261554,
                        -0.09044387286952442,
                        0.00784863238253546,
                        0.03389448091588464,
                        0.011546418760199514,
                        0.008487461020999286,
                        0.04519251633483206,
                        -0.019609654080754726
                    ]
                },
                {
                    "bias": -1.0,
                    "weights": [
                        0.03514087082586597,
                        -0.10482604687091439,
                        -0.023095902981008557,
                        -0.04618768991840451,
                        -0.057106849270300394,
                        0.040687973755816335,
                        0.04506557785940275,
                        0.033342369529141526,
                        0.07229126245261554,
                        -0.09044387286952442,
                        0.00784863238253546,
                        0.03389448091588464,
                        0.011546418760199514,
                        0.008487461020999286,
                        0.04519251633483206,
                        -0.019609654080754726
                    ]
                },
                {
                    "bias": -1.0,
                    "weights": [
                        0.03514087082586597,
                        -0.10482604687091439,
                        -0.023095902981008557,
                        -0.04618768991840451,
                        -0.057106849270300394,
                        0.040687973755816335,
                        0.04506557785940275,
                        0.033342369529141526,
                        0.07229126245261554,
                        -0.09044387286952442,
                        0.00784863238253546,
                        0.03389448091588464,
                        0.011546418760199514,
                        0.008487461020999286,
                        0.04519251633483206,
                        -0.019609654080754726
                    ]
                },
                {
                    "bias": -1.0,
                    "weights": [
                        0.03514087082586597,
                        -0.10482604687091439,
                        -0.023095902981008557,
                        -0.04618768991840451,
                        -0.057106849270300394,
                        0.040687973755816335,
                        0.04506557785940275,
                        0.033342369529141526,
                        0.07229126245261554,
                        -0.09044387286952442,
                        0.00784863238253546,
                        0.03389448091588464,
                        0.011546418760199514,
                        0.008487461020999286,
                        0.04519251633483206,
                        -0.019609654080754726
                    ]
                },
                {
                    "bias": -1.0,
                    "weights": [
                        0.03514087082586597,
                        -0.10482604687091439,
                        -0.023095902981008557,
                        -0.04618768991840451,
                        -0.057106849270300394,
                        0.040687973755816335,
                        0.04506557785940275,
                        0.033342369529141526,
                        0.07229126245261554,
                        -0.09044387286952442,
                        0.00784863238253546,
                        0.03389448091588464,
                        0.011546418760199514,
                        0.008487461020999286,
                        0.04519251633483206,
                        -0.019609654080754726
                    ]
                },
                {
                    "bias": -1.0,
                    "weights": [
                        0.03514087082586597,
                        -0.10482604687091439,
                        -0.023095902981008557,
                        -0.04618768991840451,
                        -0.057106849270300394,
                        0.040687973755816335,
                        0.04506557785940275,
                        0.033342369529141526,
                        0.07229126245261554,
                        -0.09044387286952442,
                        0.00784863238253546,
                        0.03389448091588464,
                        0.011546418760199514,
                        0.008487461020999286,
                        0.04519251633483206,
                        -0.019609654080754726
                    ]
                },
                {
                    "bias": -1.0,
                    "weights": [
                        0.03514087082586597,
                        -0.10482604687091439,
                        -0.023095902981008557,
                        -0.04618768991840451,
                        -0.057106849270300394,
                        0.040687973755816335,
                        0.04506557785940275,
                        0.033342369529141526,
                        0.07229126245261554,
                        -0.09044387286952442,
                        0.00784863238253546,
                        0.03389448091588464,
                        0.011546418760199514,
                        0.008487461020999286,
                        0.04519251633483206,
                        -0.019609654080754726
                    ]
                },
                {
                    "bias": -1.0,
                    "weights": [
                        0.03514087082586597,
                        -0.10482604687091439,
                        -0.023095902981008557,
                        -0.04618768991840451,
                        -0.057106849270300394,
                        0.040687973755816335,
                        0.04506557785940275,
                        0.033342369529141526,
                        0.07229126245261554,
                        -0.09044387286952442,
                        0.00784863238253546,
                        0.03389448091588464,
                        0.011546418760199514,
                        0.008487461020999286,
                        0.04519251633483206,
                        -0.019609654080754726
                    ]
                },
                {
                    "bias": -1.0,
                    "weights": [
                        0.03514087082586597,
                        -0.10482604687091439,
                        -0.023095902981008557,
                        -0.04618768991840451,
                        -0.057106849270300394,
                        0.040687973755816335,
                        0.04506557785940275,
                        0.033342369529141526,
                        0.07229126245261554,
                        -0.09044387286952442,
                        0.00784863238253546,
                        0.03389448091588464,
                        0.011546418760199514,
                        0.008487461020999286,
                        0.04519251633483206,
                        -0.019609654080754726
                    ]
                },
                {
                    "bias": -1.0,
                    "weights": [
                        0.03514087082586597,
                        -0.10482604687091439,
                        -0.023095902981008557,
                        -0.04618768991840451,
                        -0.057106849270300394,
                        0.040687973755816335,
                        0.04506557785940275,
                        0.033342369529141526,
                        0.07229126245261554,
                        -0.09044387286952442,
                        0.00784863238253546,
                        0.03389448091588464,
                        0.011546418760199514,
                        0.008487461020999286,
                        0.04519251633483206,
                        -0.019609654080754726
                    ]
                },
                {
                    "bias": -1.0,
                    "weights": [
                        0.03514087082586597,
                        -0.10482604687091439,
                        -0.023095902981008557,
                        -0.04618768991840451,
                        -0.057106849270300394,
                        0.040687973755816335,
                        0.04506557785940275,
                        0.033342369529141526,
                        0.07229126245261554,
                        -0.09044387286952442,
                        0.00784863238253546,
                        0.03389448091588464,
                        0.011546418760199514,
                        0.008487461020999286,
                        0.04519251633483206,
                        -0.019609654080754726
                    ]
                },
                {
                    "bias": -1.0,
                    "weights": [
                        0.03514087082586597,
                        -0.10482604687091439,
                        -0.023095902981008557,
                        -0.04618768991840451,
                        -0.057106849270300394,
                        0.040687973755816335,
                        0.04506557785940275,
                        0.033342369529141526,
                        0.07229126245261554,
                        -0.09044387286952442,
                        0.00784863238253546,
                        0.03389448091588464,
                        0.011546418760199514,
                        0.008487461020999286,
                        0.04519251633483206,
                        -0.019609654080754726
                    ]
                },
                {
                    "bias": -1.0,
                    "weights": [
                        0.03514087082586597,
                        -0.10482604687091439,
                        -0.023095902981008557,
                        -0.04618768991840451,
                        -0.057106849270300394,
                        0.040687973755816335,
                        0.04506557785940275,
                        0.033342369529141526,
                        0.07229126245261554,
                        -0.09044387286952442,
                        0.00784863238253546,
                        0.03389448091588464,
                        0.011546418760199514,
                        0.008487461020999286,
                        0.04519251633483206,
                        -0.019609654080754726
                    ]
                }
            ]
        },
        {
            "count": 8,
            "nodes": [
                {
                    "bias": -1.0,
                    "weights": [
                        0.020652331792875588,
                        0.01693736062225198,
                        0.18979887860951805,
                        0.027619111065080196,
                        0.19249915048817504,
                        0.04612725077502368,
                        -0.06656663023483199,
                        -0.01008660323009325
                    ]
                },
                {
                    "bias": -1.0,
                    "weights": [
                        0.020652331792875588,
                        0.01693736062225198,
                        0.18979887860951805,
                        0.027619111065080196,
                        0.19249915048817504,
                        0.04612725077502368,
                        -0.06656663023483199,
                        -0.01008660323009325
                    ]
                },
                {
                    "bias": -1.0,
                    "weights": [
                        0.020652331792875588,
                        0.01693736062225198,
                        0.18979887860951805,
                        0.027619111065080196,
                        0.19249915048817504,
                        0.04612725077502368,
                        -0.06656663023483199,
                        -0.01008660323009325
                    ]
                },
                {
                    "bias": -1.0,
                    "weights": [
                        0.020652331792875588,
                        0.01693736062225198,
                        0.18979887860951805,
                        0.027619111065080196,
                        0.19249915048817504,
                        0.04612725077502368,
                        -0.06656663023483199,
                        -0.01008660323009325
                    ]
                },
                {
                    "bias": -1.0,
                    "weights": [
                        0.020652331792875588,
                        0.01693736062225198,
                        0.18979887860951805,
                        0.027619111065080196,
                        0.19249915048817504,
                        0.04612725077502368,
                        -0.06656663023483199,
                        -0.01008660323009325
                    ]
                },
                {
                    "bias": -1.0,
                    "weights": [
                        0.020652331792875588,
                        0.01693736062225198,
                        0.18979887860951805,
                        0.027619111065080196,
                        0.19249915048817504,
                        0.04612725077502368,
                        -0.06656663023483199,
                        -0.01008660323009325
                    ]
                },
                {
                    "bias": -1.0,
                    "weights": [
                        0.020652331792875588,
                        0.01693736062225198,
                        0.18979887860951805,
                        0.027619111065080196,
                        0.19249915048817504,
                        0.04612725077502368,
                        -0.06656663023483199,
                        -0.01008660323009325
                    ]
                },
                {
                    "bias": -1.0,
                    "weights": [
                        0.020652331792875588,
                        0.01693736062225198,
                        0.18979887860951805,
                        0.027619111065080196,
                        0.19249915048817504,
                        0.04612725077502368,
                        -0.06656663023483199,
                        -0.01008660323009325
                    ]
                }
            ]
        },
        {
            "count": 8,
            "nodes": [
                {
                    "bias": -1.0,
                    "weights": [
                        -0.0826439938151248,
                        -0.03716655030323679,
                        -0.16425519198042698,
                        -0.11645129410796679,
                        -0.2758543586581514,
                        -0.08065143449454548,
                        0.10265859605872761,
                        0.09788708829656044
                    ]
                },
                {
                    "bias": -1.0,
                    "weights": [
                        -0.0826439938151248,
                        -0.03716655030323679,
                        -0.16425519198042698,
                        -0.11645129410796679,
                        -0.2758543586581514,
                        -0.08065143449454548,
                        0.10265859605872761,
                        0.09788708829656044
                    ]
                },
                {
                    "bias": -1.0,
                    "weights": [
                        -0.0826439938151248,
                        -0.03716655030323679,
                        -0.16425519198042698,
                        -0.11645129410796679,
                        -0.2758543586581514,
                        -0.08065143449454548,
                        0.10265859605872761,
                        0.09788708829656044
                    ]
                },
                {
                    "bias": -1.0,
                    "weights": [
                        -0.0826439938151248,
                        -0.03716655030323679,
                        -0.16425519198042698,
                        -0.11645129410796679,
                        -0.2758543586581514,
                        -0.08065143449454548,
                        0.10265859605872761,
                        0.09788708829656044
                    ]
                },
                {
                    "bias": -1.0,
                    "weights": [
                        -0.0826439938151248,
                        -0.03716655030323679,
                        -0.16425519198042698,
                        -0.11645129410796679,
                        -0.2758543586581514,
                        -0.08065143449454548,
                        0.10265859605872761,
                        0.09788708829656044
                    ]
                },
                {
                    "bias": -1.0,
                    "weights": [
                        -0.0826439938151248,
                        -0.03716655030323679,
                        -0.16425519198042698,
                        -0.11645129410796679,
                        -0.2758543586581514,
                        -0.08065143449454548,
                        0.10265859605872761,
                        0.09788708829656044
                    ]
                },
                {
                    "bias": -1.0,
                    "weights": [
                        -0.0826439938151248,
                        -0.03716655030323679,
                        -0.16425519198042698,
                        -0.11645129410796679,
                        -0.2758543586581514,
                        -0.08065143449454548,
                        0.10265859605872761,
                        0.09788708829656044
                    ]
                },
                {
                    "bias": -1.0,
                    "weights": [
                        -0.0826439938151248,
                        -0.03716655030323679,
                        -0.16425519198042698,
                        -0.11645129410796679,
                        -0.2758543586581514,
                        -0.08065143449454548,
                        0.10265859605872761,
                        0.09788708829656044
                    ]
                }
            ]
        },
        {
            "count": 4,
            "nodes": [
                {
                    "bias": -1.0,
                    "weights": [
                        -0.2720959430170173,
                        0.1318327917758646,
                        -0.11934603965317402,
                        -0.13557634161407894
                    ]
                },
                {
                    "bias": -1.0,
                    "weights": [
                        -0.2720959430170173,
                        0.1318327917758646,
                        -0.11934603965317402,
                        -0.13557634161407894
                    ]
                },
                {
                    "bias": -1.0,
                    "weights": [
                        -0.2720959430170173,
                        0.1318327917758646,
                        -0.11934603965317402,
                        -0.13557634161407894
                    ]
                },
                {
                    "bias": -1.0,
                    "weights": [
                        -0.2720959430170173,
                        0.1318327917758646,
                        -0.11934603965317402,
                        -0.13557634161407894
                    ]
                }
            ]
        }
    ]
}
